{"n_classes": 3, "n_hiden_layers": 1, "hidden": [{"weights": [[1.8141627311706543, -0.7100498080253601, 0.7237635254859924, -0.1146400049328804, 0.16143473982810974, -0.14575739204883575, 1.8930456638336182, -0.8310289978981018, 1.0531070232391357, -0.938412606716156, -0.058890558779239655, -1.2870771884918213, -0.9323269128799438], [0.28868794441223145, -2.3686623573303223, 0.25998833775520325, -1.3840090036392212, -0.1260133981704712, 1.231225848197937, 2.435962200164795, -1.4323197603225708, -0.5673059225082397, -1.0058420896530151, 0.7705230712890625, 0.7210467457771301, -1.6811319589614868], [0.19495654106140137, -0.09522829949855804, -0.6281869411468506, 0.44487759470939636, 1.2114566564559937, -1.1285200119018555, 2.076230525970459, -0.596672773361206, 0.1680341213941574, 0.8279755711555481, 2.1681573390960693, -1.036285400390625, -1.043896198272705], [1.8443735837936401, 0.44245535135269165, -0.6467883586883545, 0.5901373028755188, -1.3940640687942505, 0.5506482720375061, 0.4885638356208801, -0.9944618940353394, 0.7720840573310852, 1.736050009727478, -2.0495173931121826, 2.0900871753692627, 1.3740679025650024], [0.7954005002975464, -0.1766526997089386, 0.9480798244476318, -0.18205389380455017, 0.5321975946426392, 1.486243486404419, 1.6417450904846191, 0.36971649527549744, -1.280308485031128, -1.6524029970169067, 0.9657812118530273, -0.3840549886226654, -0.39671072363853455], [0.25558316707611084, 0.6352778673171997, -2.9289662837982178, -0.9077996611595154, 0.1837632656097412, -0.8894756436347961, -0.4441581666469574, -0.024877388030290604, 0.5241715908050537, 1.2812951803207397, 0.9132935404777527, -1.3823792934417725, 0.2665165364742279], [0.5821628570556641, 1.5435651540756226, -0.9031475782394409, 1.085729956626892, 2.335059881210327, 0.7013357281684875, -1.0142157077789307, -0.625227689743042, -1.1474108695983887, -0.3806265592575073, 2.3723063468933105, -0.03448453173041344, 0.19344383478164673], [-1.2146974802017212, -0.8128840327262878, -0.7248890399932861, -0.04911535233259201, -0.4473552107810974, 1.0306016206741333, 0.018405741080641747, -1.831565260887146, 1.139095664024353, 2.1274235248565674, 0.45685985684394836, -1.0403320789337158, -0.17172737419605255], [0.0233957227319479, 1.6186782121658325, 1.9260653257369995, 1.3218226432800293, 0.5040839314460754, 0.18940392136573792, -0.018879473209381104, -0.2893402576446533, -1.273373007774353, 0.6337941288948059, 2.410585403442383, 0.3217001259326935, -0.920185923576355], [1.0124671459197998, 0.48011672496795654, 0.3392845690250397, -0.11356306821107864, 0.6889049410820007, -2.742091178894043, -0.5669196844100952, 1.5360084772109985, 0.23656317591667175, 0.016048096120357513, -0.9498481154441833, -0.02482813410460949, -0.024311179295182228], [0.4412410855293274, -0.5899989008903503, 0.405892938375473, -0.08043349534273148, 0.1207156777381897, 0.5413022041320801, -1.8958607912063599, 0.6289935111999512, 1.0962275266647339, -0.21492165327072144, -1.4672266244888306, 1.6298147439956665, 0.09098012745380402], [1.8556514978408813, -0.8022134900093079, 0.22882084548473358, 1.6548014879226685, 3.588685989379883, 1.5487580299377441, -0.27955129742622375, 0.18936577439308167, -0.11300330609083176, 0.46542298793792725, 1.4112927913665771, 0.8040291666984558, -0.22356249392032623], [-0.22678829729557037, -1.605196475982666, 2.139781951904297, 0.09894364327192307, 0.17216123640537262, -1.9646997451782227, -0.0038336191792041063, -0.5443755388259888, 0.2577769160270691, -0.04398224502801895, 1.924037218093872, -0.5484064221382141, -0.6373886466026306]], "biases": [-0.5216204524040222, 0.8180593848228455, -0.249272421002388, 0.4148048460483551, -0.8553311824798584, 1.271898627281189, -0.569843590259552, -0.8290495872497559, 0.7126272916793823, -1.0769436359405518, -1.7372723817825317, 0.8684225678443909, -0.05215693265199661]}], "output": {"weights": [[0.9382808804512024, 0.4371000826358795, 0.1325717270374298], [-1.8632047176361084, 0.7489444613456726, 0.9950727224349976], [-0.395706444978714, 0.8685911297798157, 0.7611303329467773], [0.32497280836105347, -0.3601587116718292, -2.102822780609131], [0.28106579184532166, -0.3483995199203491, -0.8533926010131836], [-0.9723754525184631, 1.5223002433776855, -1.4922128915786743], [-0.7482119202613831, -1.747514009475708, 2.0420451164245605], [0.1291777342557907, 2.195216417312622, 0.16124624013900757], [0.7833451628684998, -0.04404379799962044, 0.09065312892198563], [-1.8303841352462769, 0.46862009167671204, 0.4088136553764343], [0.3392640948295593, -0.8014971613883972, -0.6887153387069702], [-1.1564713716506958, 0.5557618737220764, -0.07574288547039032], [1.917325735092163, 0.2103394865989685, 0.08966465294361115]], "biases": [-1.7231709957122803, 0.6595625877380371, 1.1882034540176392]}}